[array([[[[ 0.17680924]],

        [[-0.17865917]],

        [[-0.05079876]],

        [[ 0.15420799]],

        [[-0.02579799]],

        [[-0.03040583]],

        [[-0.09202681]],

        [[-0.05663974]],

        [[ 0.13490911]]],


       [[[ 0.02989306]],

        [[ 0.15630342]],

        [[-0.04263632]],

        [[-0.15698603]],

        [[ 0.01602399]],

        [[-0.1063424 ]],

        [[-0.0056233 ]],

        [[-0.16050775]],

        [[ 0.13146308]]],


       [[[ 0.08093681]],

        [[-0.12066424]],

        [[-0.08990621]],

        [[ 0.06857947]],

        [[-0.03827402]],

        [[ 0.12939262]],

        [[-0.01010503]],

        [[-0.1297104 ]],

        [[-0.079385  ]]],


       [[[-0.12211067]],

        [[ 0.07076941]],

        [[ 0.13463971]],

        [[ 0.10874549]],

        [[ 0.03802875]],

        [[-0.10907771]],

        [[-0.14475991]],

        [[ 0.1836335 ]],

        [[-0.10182729]]],


       [[[-0.12758772]],

        [[-0.16646305]],

        [[-0.10366494]],

        [[-0.16725577]],

        [[-0.05895152]],

        [[-0.07478448]],

        [[ 0.17030445]],

        [[ 0.00878293]],

        [[-0.00916788]]],


       [[[ 0.13649906]],

        [[ 0.18463744]],

        [[-0.11940438]],

        [[-0.05166062]],

        [[-0.01409747]],

        [[-0.14382465]],

        [[-0.02919978]],

        [[ 0.08888905]],

        [[-0.00670458]]],


       [[[-0.13481504]],

        [[-0.12556127]],

        [[-0.05175259]],

        [[-0.0331571 ]],

        [[ 0.07390323]],

        [[ 0.04794181]],

        [[ 0.07935702]],

        [[-0.03208841]],

        [[ 0.091423  ]]],


       [[[-0.02522646]],

        [[-0.04635993]],

        [[ 0.12691082]],

        [[ 0.10316819]],

        [[ 0.1354453 ]],

        [[ 0.00984248]],

        [[-0.1594969 ]],

        [[ 0.15692708]],

        [[ 0.03304117]]],


       [[[ 0.01353423]],

        [[-0.11717174]],

        [[-0.12812167]],

        [[ 0.1548344 ]],

        [[-0.09411553]],

        [[ 0.0897801 ]],

        [[ 0.05818088]],

        [[-0.16594186]],

        [[ 0.14588198]]]], dtype=float32), array([-0.01869558], dtype=float32), array([[[[-0.1188717 ]],

        [[-0.21358272]],

        [[-0.22581287]],

        [[-0.15018985]],

        [[-0.1260828 ]],

        [[ 0.113492  ]],

        [[-0.02905556]]],


       [[[-0.18525605]],

        [[-0.02367225]],

        [[-0.04593671]],

        [[-0.24065769]],

        [[ 0.00605461]],

        [[ 0.19191243]],

        [[ 0.03460015]]],


       [[[-0.13740323]],

        [[-0.18876669]],

        [[ 0.1287933 ]],

        [[ 0.13908818]],

        [[ 0.19130445]],

        [[-0.06596169]],

        [[-0.05644628]]],


       [[[-0.03920146]],

        [[ 0.13140959]],

        [[ 0.09551431]],

        [[-0.10519375]],

        [[-0.13427684]],

        [[ 0.04020987]],

        [[-0.03358572]]],


       [[[ 0.1773714 ]],

        [[ 0.00496514]],

        [[-0.06940169]],

        [[ 0.21663092]],

        [[ 0.1480663 ]],

        [[ 0.10942995]],

        [[-0.18735853]]],


       [[[ 0.1102752 ]],

        [[-0.19203375]],

        [[ 0.04555426]],

        [[-0.2738866 ]],

        [[ 0.02216819]],

        [[-0.2037189 ]],

        [[ 0.00085996]]],


       [[[-0.12550052]],

        [[-0.05339008]],

        [[ 0.09053883]],

        [[-0.06952887]],

        [[-0.08563952]],

        [[ 0.01966196]],

        [[-0.08483529]]]], dtype=float32), array([0.06280293], dtype=float32), array([[ 8.00934061e-02,  4.98813502e-02],
       [ 1.05082989e-01,  1.48729077e-02],
       [-3.35696153e-02, -1.59460513e-04],
       [-8.14409927e-02,  1.23193432e-02],
       [-7.68161267e-02, -5.82775921e-02],
       [ 2.60528363e-02, -5.59836887e-02],
       [-5.90687059e-02,  8.16705870e-04],
       [-1.97853427e-02, -1.88318640e-02],
       [-5.65210357e-02,  1.45153534e-02],
       [-1.91604253e-02,  1.69893878e-03],
       [-2.70527992e-02, -1.82167441e-03],
       [-2.66865641e-02,  1.78101752e-02],
       [-1.41853783e-02, -3.10811005e-03],
       [ 2.26955693e-02,  4.73366417e-02],
       [-4.80886549e-02, -6.42632181e-03],
       [-6.08759746e-02,  5.79190664e-02],
       [-3.23335417e-02,  1.77862160e-02],
       [ 1.99310407e-02,  3.73888463e-02],
       [-6.78128004e-02,  4.20451798e-02],
       [-3.74044739e-02, -5.46199642e-03],
       [-3.78398318e-03,  1.61214620e-02],
       [-1.67375989e-02,  6.44082651e-02],
       [-5.40215448e-02,  4.42764685e-02],
       [ 1.84118003e-02,  3.51025648e-02],
       [-1.12708155e-02,  2.11393759e-02],
       [-5.64868189e-02,  4.47538532e-02],
       [ 2.19284487e-03,  1.08860739e-01],
       [-4.24500518e-02,  1.85648352e-02],
       [ 3.09251640e-02, -6.94013806e-03],
       [-5.12156487e-02,  6.67361245e-02],
       [-4.48317900e-02,  3.74448337e-02],
       [-1.67869553e-02,  7.58986771e-02],
       [-8.94628186e-03,  1.66763749e-03],
       [-3.17564257e-03, -6.58760965e-02],
       [-5.74452430e-02,  2.04662252e-02],
       [-2.85904668e-02,  4.75495867e-02],
       [ 1.89297099e-03, -4.11663055e-02],
       [ 6.53432868e-03,  1.19813737e-02],
       [ 1.61433802e-03,  1.63617693e-02],
       [-3.31761017e-02, -6.88246265e-02],
       [ 2.88826246e-02,  3.80106010e-02],
       [-5.09229004e-02, -2.04759110e-02],
       [-3.05692405e-02, -8.22631083e-03],
       [-1.21431490e-02, -2.12014187e-02],
       [-3.42395417e-02,  5.50184250e-02],
       [ 2.01686826e-02,  2.69927494e-02],
       [ 6.30886946e-03,  1.50287449e-02],
       [ 3.48342732e-02,  4.14383672e-02],
       [-3.58326398e-02, -1.86364874e-02],
       [-9.32546798e-03,  6.33529127e-02],
       [ 6.72876183e-03, -1.09733278e-02],
       [-3.03902626e-02, -2.81997677e-03],
       [-2.85621453e-02,  1.99810360e-02],
       [-9.64424293e-03,  5.53854704e-02],
       [ 1.21244816e-02,  8.80946312e-03],
       [-3.30678523e-02,  1.21047134e-02],
       [-2.79623996e-02,  5.73619492e-02],
       [ 2.20042169e-02,  6.06975406e-02],
       [-5.88569231e-02, -1.85916070e-02],
       [-1.79900900e-02,  5.89180402e-02],
       [-6.69883098e-04,  3.80061641e-02],
       [-3.74611653e-03,  8.44895765e-02],
       [ 4.63609956e-02, -2.25226884e-03],
       [ 4.81843986e-02,  1.30030036e-01],
       [-2.01280098e-02, -1.54359117e-02],
       [-1.57196242e-02,  6.37141755e-03],
       [-4.60035866e-03, -1.57710642e-03],
       [-3.28346230e-02,  1.59373917e-02],
       [-1.51798297e-02,  1.69457160e-02],
       [ 6.89277705e-03, -3.60046769e-03],
       [ 9.47180670e-03, -1.64972767e-02],
       [ 6.06283429e-05,  4.92443331e-02],
       [ 1.05758139e-03,  4.62062797e-03],
       [ 1.33692576e-02,  5.40299304e-02],
       [-2.96872463e-02, -9.62789822e-03],
       [-8.29804782e-03, -3.92361283e-02],
       [-3.43058780e-02,  3.03990394e-02],
       [-9.31131467e-03,  3.62330712e-02],
       [ 3.62185901e-03,  8.07312969e-03],
       [ 1.32061047e-02,  4.29842621e-02],
       [-4.32777358e-03,  6.08162880e-02],
       [-3.34851369e-02,  6.27553761e-02],
       [ 2.52289400e-02,  2.22691987e-02],
       [-3.74563076e-02,  2.28087548e-02],
       [ 3.08940560e-02,  2.04838030e-02],
       [-3.32510844e-02,  5.83642460e-02],
       [-2.57585943e-02,  2.19223611e-02],
       [ 4.19741962e-03,  6.39485568e-02],
       [ 7.33767357e-03,  7.21776439e-03],
       [-1.02037899e-02,  5.54628037e-02],
       [ 3.40006053e-02,  8.59818012e-02],
       [-7.74554238e-02,  1.63054839e-02],
       [-6.31019399e-02,  2.52953917e-02],
       [ 7.34080374e-02,  5.16469823e-03],
       [ 7.23722056e-02,  8.81975442e-02],
       [-8.20034593e-02,  9.16335955e-02],
       [ 7.37863733e-03,  8.99616256e-03],
       [-8.55427049e-03, -5.95948845e-02],
       [ 2.67852060e-02,  2.56667882e-02],
       [-4.79550138e-02, -3.44376639e-02],
       [-3.66276950e-02,  2.78003886e-02],
       [ 2.17447300e-02, -4.85917591e-02],
       [ 2.74851788e-02, -3.00965197e-02],
       [ 4.36893366e-02, -6.73253834e-02],
       [-8.75943601e-02,  2.58184709e-02],
       [ 2.36800332e-02,  7.02880556e-03],
       [ 3.28657553e-02, -1.50439907e-02],
       [-2.12682784e-02, -1.14163067e-02],
       [-6.92856386e-02,  3.52143496e-02],
       [ 3.79108153e-02, -3.18536418e-03],
       [-2.27107704e-02, -5.49521716e-03],
       [-1.75569598e-02,  7.94162694e-03],
       [-4.88543101e-02,  2.69987099e-02],
       [ 1.47856250e-02,  5.10842204e-02],
       [ 1.61241516e-02,  3.10375504e-02],
       [-4.10997681e-02, -8.21409840e-03],
       [-4.13506925e-02,  6.09184392e-02],
       [ 2.39344072e-02,  3.65628563e-02],
       [ 4.34767455e-02, -4.16729301e-02],
       [-4.30514850e-02,  7.34561011e-02],
       [ 5.04292622e-02, -5.46294004e-02],
       [-4.17684652e-02, -3.05690095e-02],
       [-9.39145982e-02, -3.56828375e-03],
       [ 4.07571383e-02,  1.07506737e-01],
       [-8.65199044e-02, -1.78973190e-02],
       [-3.57975736e-02,  2.84030139e-02],
       [-1.00305062e-02,  1.15258306e-01],
       [-1.06251640e-02,  7.29398355e-02],
       [ 3.68869118e-02,  2.98445001e-02],
       [ 2.86671408e-02,  5.43145835e-03],
       [ 6.55403500e-03,  3.72650847e-02],
       [-2.40357197e-03,  3.20045911e-02],
       [ 3.13713041e-04, -1.92218274e-02],
       [ 2.98795775e-02,  5.11086583e-02],
       [ 4.21547815e-02, -2.00738143e-02],
       [-2.33500581e-02,  6.67023612e-03],
       [ 1.92306377e-03, -3.43056358e-02],
       [-4.45607789e-02,  1.04994504e-02],
       [-3.65785174e-02,  7.16741979e-02],
       [ 1.31266313e-02, -1.91791430e-02],
       [ 1.06565161e-02, -2.65655462e-02],
       [-3.53910141e-02,  4.10260595e-02],
       [-3.08847800e-02,  5.17113358e-02],
       [-1.45438733e-02, -1.78887714e-02],
       [ 3.66772488e-02, -1.37726264e-02],
       [ 1.96145773e-02,  2.40689726e-03],
       [-3.47344913e-02,  7.33409077e-02],
       [ 2.20557619e-02, -1.99089162e-02],
       [-5.79102561e-02,  3.21164429e-02],
       [-1.14182206e-02,  6.24400824e-02],
       [-2.28681471e-02,  1.38169955e-02],
       [ 4.76826206e-02,  5.80269583e-02],
       [-4.99589518e-02,  7.31942728e-02],
       [-3.01601477e-02, -2.30869949e-02],
       [ 3.45249139e-02,  6.04938492e-02],
       [ 3.69808823e-02,  3.03346813e-02],
       [ 1.18902223e-02, -4.99532791e-04],
       [-3.60376909e-02,  1.15866968e-02],
       [-6.40795529e-02,  6.39064461e-02],
       [-1.65863317e-02, -9.09460336e-03],
       [-3.22147049e-02,  2.74286363e-02],
       [-2.04824358e-02, -8.36944766e-03],
       [ 2.00035349e-02, -1.09358598e-02],
       [-4.19180281e-02,  4.29445505e-03],
       [-1.65863428e-02,  6.89114481e-02],
       [ 3.16911638e-02, -2.26064976e-02],
       [-6.45214040e-03, -6.42519593e-02],
       [-4.08632644e-02, -2.39957832e-02],
       [ 3.88991050e-02, -2.19226908e-02],
       [ 2.13448820e-03,  3.99218984e-02],
       [ 2.13776864e-02, -2.86479443e-02],
       [-2.30931975e-02, -4.21087630e-02],
       [-6.03496609e-03,  4.26827148e-02],
       [-4.12899703e-02, -1.47552993e-02],
       [ 3.22483853e-02,  7.42917210e-02],
       [-1.83147881e-02,  7.23933568e-03],
       [-2.28147209e-02, -1.24456128e-02],
       [-1.18212681e-03,  1.56147461e-02],
       [ 2.30802447e-02,  3.44922990e-02],
       [ 4.83839177e-02,  4.31017801e-02],
       [-3.82157005e-02,  3.26082110e-02],
       [ 1.39020905e-02,  2.93675922e-02],
       [-1.75519753e-02, -4.74610217e-02],
       [-3.11142933e-02,  8.48119408e-02],
       [ 4.57766503e-02,  1.99269354e-02],
       [-8.21400955e-02, -4.55925167e-02],
       [ 3.42987925e-02,  6.85134009e-02],
       [-6.58926219e-02,  4.37571630e-02],
       [ 2.97833923e-02,  1.11003384e-01],
       [-3.33236717e-02, -9.33504372e-04],
       [ 7.27990409e-03,  1.28661945e-01],
       [-4.05388996e-02,  7.50109181e-02],
       [ 2.46264366e-03, -6.27092943e-02],
       [-1.01066343e-02,  7.25593325e-03],
       [-4.39958880e-03,  4.31338884e-02],
       [ 5.08242324e-02, -7.73514211e-02],
       [ 4.65147272e-02, -3.00164276e-04],
       [-5.25876060e-02, -4.57043536e-02],
       [-1.18959174e-02, -4.35087085e-02],
       [-6.57369848e-03, -1.63994841e-02],
       [ 5.52444980e-02, -1.71734188e-02],
       [-2.38291500e-03, -3.21554765e-02],
       [ 3.32647674e-02,  4.29754332e-02],
       [-6.20981539e-03,  5.41331319e-05],
       [-3.54909264e-02,  2.93193404e-02],
       [-3.19021828e-02,  7.51805082e-02],
       [-4.50311676e-02, -1.71424020e-02],
       [ 7.07476772e-03,  8.60018283e-02],
       [-3.15998793e-02, -2.12127436e-02],
       [-1.90721154e-02,  2.15324443e-02],
       [ 1.69023294e-02, -2.20518396e-03],
       [ 2.12437306e-02,  4.68558408e-02],
       [-1.28762359e-02,  3.69764753e-02],
       [-4.25828882e-02, -1.98833290e-02],
       [ 5.85840903e-02,  5.95394075e-02],
       [ 2.37825047e-02,  4.83199619e-02],
       [ 1.67643968e-02,  6.80335537e-02],
       [ 3.39184105e-02,  6.38727546e-02],
       [ 1.38305817e-02,  1.75535232e-02],
       [-3.94782843e-03,  6.63407370e-02],
       [ 3.61071974e-02,  2.04728940e-03],
       [-4.89856526e-02, -1.22478127e-03],
       [-4.31654304e-02,  7.01297894e-02],
       [ 1.54491076e-02,  6.99203685e-02],
       [-4.94495481e-02,  4.10250872e-02],
       [ 2.23104600e-02, -1.77117009e-02],
       [ 3.23029347e-02,  5.11484593e-02],
       [-4.66116257e-02,  4.95264977e-02],
       [ 6.06282195e-03,  1.14143780e-02],
       [ 1.66741442e-02,  1.60506349e-02],
       [ 3.65341790e-02, -3.08794565e-02],
       [-3.97449061e-02, -3.13156694e-02],
       [-5.12816198e-02, -3.67129222e-02],
       [-2.75006667e-02,  1.70794018e-02],
       [ 4.13650237e-02, -4.62314598e-02],
       [-2.32991353e-02, -3.88487545e-03],
       [-4.18667421e-02, -1.22267604e-02],
       [ 5.12684658e-02, -1.07816132e-02],
       [-4.11270112e-02,  6.94352314e-02],
       [-1.48223164e-02,  1.39880283e-02],
       [ 3.18022096e-03,  3.50354910e-02],
       [ 1.95694137e-02,  7.15353191e-02],
       [-3.78686823e-02,  1.45744262e-02],
       [-4.79173567e-03,  5.15870675e-02],
       [ 1.23973971e-03,  1.03508644e-01],
       [-4.09566574e-02, -5.91279380e-03],
       [-1.39499810e-02,  4.74215038e-02],
       [ 4.71148677e-02,  5.97416610e-03],
       [-2.78305002e-02,  6.40112683e-02],
       [ 3.59104946e-02,  2.80173812e-02],
       [ 3.72814573e-02,  6.53429851e-02],
       [-2.98059229e-02,  1.05602801e-01],
       [ 3.32945101e-02,  8.87168571e-03],
       [-4.42610309e-02,  1.19790830e-01],
       [-4.88689728e-03,  2.73675881e-02],
       [-8.34733322e-02,  5.77933080e-02],
       [ 7.08625466e-02, -6.74507231e-04],
       [-2.46441774e-02,  2.03145146e-02],
       [ 3.46777379e-03, -5.61567768e-03],
       [-2.87199151e-02,  1.27360830e-03],
       [-1.81679782e-02, -1.58022661e-02],
       [ 3.99499722e-02, -2.24920502e-03],
       [ 5.04999459e-02, -5.32503016e-02],
       [ 5.16639762e-02,  2.27724556e-02],
       [ 2.59354189e-02, -8.07685591e-03],
       [ 2.93339100e-02,  5.87015506e-03],
       [-6.94897547e-02,  1.18367840e-02],
       [ 1.99740473e-02,  2.52109412e-02],
       [ 1.05181597e-02, -5.73865473e-02],
       [-3.10203880e-02,  4.02987637e-02],
       [-2.16963924e-02,  4.24306430e-02],
       [-2.60532051e-02, -3.88390161e-02],
       [ 2.88882162e-02,  2.16839816e-02],
       [ 2.83353054e-03, -4.09713946e-03],
       [-4.80989181e-02, -2.31393566e-03],
       [-2.01253947e-02,  7.15511851e-03],
       [-2.10501160e-03,  5.07741608e-03],
       [-1.17303319e-02,  9.06325057e-02],
       [ 4.14206758e-02, -2.06047930e-02],
       [-2.28998549e-02, -2.21377052e-03],
       [-3.35162506e-02,  2.95816399e-02],
       [ 3.33767347e-02,  7.57463947e-02],
       [ 4.05788273e-02,  2.00787615e-02],
       [-1.57728177e-02,  3.95740010e-02],
       [ 2.13683695e-02,  1.57143304e-03],
       [ 4.54837978e-02,  9.90863070e-02],
       [ 1.32454243e-02,  4.19532396e-02],
       [ 4.26128544e-02,  1.20619588e-01],
       [ 6.55031055e-02, -6.01077743e-04],
       [ 4.20539193e-02,  2.86267791e-02],
       [ 5.73102944e-02,  1.61142386e-02],
       [-3.52847911e-02, -8.05779099e-02],
       [-2.59795021e-02,  1.25508979e-02],
       [ 5.10575920e-02, -4.60113548e-02],
       [-6.45786431e-03, -4.80521359e-02],
       [ 8.00620485e-03, -3.29280905e-02],
       [-2.16609128e-02,  7.93032628e-03],
       [-6.83651865e-03,  1.46890543e-02],
       [-1.41559523e-02,  1.33331139e-02],
       [-4.30075787e-02,  1.58036035e-02],
       [-3.65340896e-02, -3.83893885e-02],
       [ 9.58612014e-04,  8.38949159e-03],
       [-6.01291172e-02,  2.42987089e-02],
       [-2.67837662e-03,  5.23266047e-02],
       [ 1.93994008e-02, -2.63439678e-02],
       [ 8.82906653e-03,  4.06215563e-02],
       [-2.28044633e-02, -8.18366557e-03],
       [-2.01418754e-02,  7.02279508e-02],
       [-5.41154109e-02,  6.98400196e-03],
       [ 2.87987795e-02,  7.67174289e-02],
       [ 4.30608168e-02,  3.78667489e-02],
       [-4.64449674e-02,  2.67279614e-02],
       [ 2.89776195e-02, -9.34136333e-04],
       [ 1.74747128e-02,  2.81159785e-02],
       [ 3.24256904e-02,  7.12802708e-02],
       [-1.71806030e-02,  9.22094733e-02],
       [-2.20505539e-02,  6.24338537e-02],
       [-2.03436743e-02,  1.14019196e-02],
       [ 1.30063295e-02,  1.29454985e-01],
       [-3.63284238e-02,  7.42802620e-02],
       [-1.85333528e-02, -7.96070416e-03],
       [ 5.05564362e-02,  7.95042515e-03],
       [-3.17762755e-02,  6.01030998e-02],
       [ 3.92104089e-02, -4.65213582e-02],
       [ 3.70246284e-02, -2.74741668e-02],
       [-5.31005003e-02, -7.17209652e-02],
       [ 3.79437134e-02, -7.51365945e-02],
       [ 1.79440603e-02, -3.08109354e-03],
       [ 5.62650710e-02, -4.90762442e-02],
       [-2.62016361e-03, -4.94234785e-02],
       [-1.20195244e-02,  3.31581756e-02],
       [ 1.02960123e-02,  1.42131113e-02],
       [-2.41413284e-02,  2.51648538e-02],
       [-3.06389406e-02, -3.62283811e-02],
       [ 8.23163707e-03,  5.29166944e-02],
       [-5.72359711e-02,  2.27356497e-02],
       [-1.83476061e-02,  3.14030051e-02],
       [-4.73345965e-02,  1.11820977e-02],
       [-2.63054110e-03,  5.99243641e-02],
       [-1.06887417e-02,  1.68313961e-02],
       [ 1.62407625e-02,  5.10277674e-02],
       [-2.70535108e-02,  1.34646548e-02],
       [-2.59452891e-02,  6.17342293e-02],
       [ 3.15373130e-02,  1.38919177e-02],
       [-2.65687238e-02,  5.33752777e-02],
       [ 3.37328762e-02,  5.02372086e-02],
       [ 1.79533195e-02, -1.75331216e-02],
       [ 7.09549291e-03,  7.90287182e-02],
       [ 4.67601232e-02,  5.05855642e-02],
       [ 2.17255931e-02,  9.59356651e-02],
       [-3.22038345e-02,  7.18365163e-02],
       [-5.85046187e-02,  1.12382740e-01],
       [-1.91996377e-02, -1.08955558e-02],
       [ 1.37425996e-02,  1.29044037e-02],
       [ 5.01444079e-02,  4.81418706e-02],
       [ 8.13124888e-03, -9.49507207e-03],
       [ 3.86505462e-02, -8.71453341e-03],
       [ 7.85965845e-02, -2.93897907e-03],
       [-1.59540270e-02, -2.23241579e-02],
       [ 9.64703446e-04, -4.46261950e-02],
       [-1.30008450e-02, -4.16289829e-02],
       [ 1.45334750e-02, -3.15573849e-02],
       [ 1.38460309e-03, -4.44752425e-02],
       [-6.51225075e-03, -2.96050627e-02],
       [-4.18315679e-02, -5.06347558e-03],
       [ 1.32957771e-02,  3.09806014e-03],
       [-3.62715451e-03, -2.93989363e-03],
       [-3.01907677e-02,  3.18876170e-02],
       [-3.13575976e-02,  6.13075197e-02],
       [ 1.02394708e-02, -1.10004563e-02],
       [-6.30510459e-03,  7.98302144e-02],
       [ 1.48413768e-02,  5.23859151e-02],
       [ 2.36263368e-02,  9.17476565e-02],
       [-1.87156126e-02,  2.28252951e-02],
       [-1.23144351e-02,  5.16625047e-02],
       [ 4.55552433e-03,  8.60004127e-02],
       [-6.20820932e-03, -6.83636032e-03],
       [ 3.70987356e-02,  1.22604012e-01],
       [ 1.26449298e-02,  2.02990212e-02],
       [-4.39798534e-02,  1.13564163e-01],
       [ 5.11697195e-02,  1.12848721e-01],
       [ 4.58991341e-02,  6.69612363e-02],
       [-3.07363179e-02,  1.16310842e-01],
       [ 5.05987257e-02,  8.20094049e-02],
       [-9.23654065e-03,  4.68063764e-02],
       [-5.91458147e-03, -1.79137681e-02],
       [-4.13333848e-02,  4.82910909e-02],
       [ 4.69721965e-02, -4.69334722e-02],
       [-3.54226748e-03, -1.03544062e-02],
       [-1.33510132e-03, -3.38484198e-02],
       [ 3.47569473e-02, -6.31836206e-02],
       [ 5.08164242e-03, -5.85462973e-02],
       [ 3.13929133e-02, -4.67082411e-02],
       [ 7.06530176e-03, -4.80142049e-02],
       [ 1.72019396e-02, -4.98174764e-02],
       [ 1.08897723e-02,  9.02152155e-03],
       [ 1.74713191e-02, -2.59518083e-02],
       [ 1.40959304e-03, -2.65078694e-02],
       [ 6.66320557e-03,  2.50154044e-02],
       [ 8.19840189e-03,  5.70738502e-03],
       [-7.35776406e-03, -6.74532540e-03],
       [-1.19548794e-02,  5.83358444e-02],
       [-2.85743866e-02,  5.10829221e-03],
       [ 2.81257052e-02,  7.37021565e-02],
       [ 3.25542875e-02,  5.34446202e-02],
       [ 4.72718924e-02,  4.81704436e-03],
       [-1.75390281e-02, -8.49863142e-03],
       [-2.29686406e-02,  2.98449714e-02],
       [-8.98994878e-03,  5.14986925e-02],
       [-2.43904069e-02,  4.94470401e-03],
       [ 3.04693263e-02, -3.14323022e-03],
       [-2.72000544e-02,  1.02676302e-01],
       [-1.33910645e-02,  7.84142017e-02],
       [-3.96715291e-02,  7.95834288e-02],
       [ 4.65523303e-02,  4.56212722e-02],
       [ 6.83996547e-03,  2.14036573e-02],
       [ 2.49518901e-02,  5.13832495e-02],
       [ 2.22908761e-02, -3.39985490e-02],
       [ 4.45830859e-02,  2.50107865e-03],
       [ 1.39505705e-02,  6.16731960e-03],
       [ 6.81277812e-02, -3.47003639e-02],
       [ 5.28414734e-02, -7.92715028e-02],
       [ 7.13354200e-02, -2.61435769e-02],
       [-1.61134209e-02,  2.29637208e-03],
       [ 1.07811382e-02, -4.18069288e-02],
       [-1.55546414e-02,  1.58308148e-02],
       [ 2.76533104e-02, -6.25507161e-02],
       [-3.58180963e-02, -1.35715054e-02],
       [ 1.09317414e-02, -4.98485640e-02],
       [-1.36531820e-03,  8.93868878e-03],
       [ 1.18175531e-02,  2.56092828e-02],
       [-6.68712426e-03,  4.75407802e-02],
       [ 7.36204768e-03, -2.75180247e-02],
       [ 6.02658838e-02,  1.48618929e-02],
       [-3.95759195e-02,  4.15805802e-02],
       [ 3.31586190e-02,  2.70512085e-02],
       [-2.46605952e-03,  7.55719543e-02],
       [ 2.76807304e-02,  3.08602545e-02],
       [ 5.63775077e-02,  4.09214646e-02],
       [ 5.43140471e-02,  4.99265455e-02],
       [ 5.35181575e-02,  1.67888049e-02],
       [-3.82976513e-03, -1.37026077e-02],
       [ 6.81023449e-02,  1.01580791e-01],
       [ 7.09019303e-02,  9.18601304e-02],
       [ 1.82539001e-02,  5.48058748e-02],
       [ 4.46479432e-02,  1.43960431e-01],
       [ 4.11219113e-02,  4.37501781e-02],
       [-3.10245482e-03,  8.26173183e-03],
       [ 4.25226539e-02,  5.09912893e-02],
       [-2.01613456e-02,  7.61794252e-03],
       [ 3.18919122e-02,  4.54201885e-02],
       [ 7.17803603e-03, -1.19824251e-02],
       [-3.45350914e-02, -4.05664742e-02],
       [ 3.49017754e-02,  1.49347680e-03],
       [ 4.40843292e-02,  4.57564252e-04],
       [ 6.17362782e-02, -7.26511702e-02],
       [ 8.75908583e-02, -2.04898696e-02],
       [ 5.04844971e-02,  8.63644946e-03],
       [-2.12755259e-02, -4.16790023e-02],
       [ 5.62424101e-02, -1.17655599e-03],
       [-2.26988122e-02,  3.45719010e-02],
       [ 2.45370349e-04,  4.44162078e-03],
       [ 3.03708427e-02,  4.27088439e-02],
       [-1.25165218e-02,  1.55127393e-02],
       [ 4.28066701e-02,  5.30031696e-02],
       [-1.34310015e-02,  7.63670634e-03],
       [ 2.02735867e-02,  7.90181160e-02],
       [-2.58792732e-02, -1.15945786e-02],
       [ 7.07531422e-02,  6.37159348e-02],
       [-1.26586249e-02,  4.60631922e-02],
       [ 4.85615097e-02,  3.25655006e-02],
       [-3.18164611e-03,  5.49529232e-02],
       [-1.18248034e-02,  4.14191224e-02],
       [ 4.58155610e-02,  1.00590751e-01],
       [ 6.93494529e-02, -7.02681718e-03],
       [-3.06476746e-02,  1.31419271e-01],
       [-1.86010301e-02,  8.72079208e-02],
       [-1.03913480e-02,  6.46864921e-02],
       [ 6.82630250e-03,  5.66073172e-02],
       [-1.01314140e-02,  6.07577637e-02],
       [ 3.31810280e-03, -2.51147896e-02],
       [ 5.64940833e-02,  1.59478504e-02],
       [ 2.63159834e-02, -3.53761576e-02],
       [ 1.03310589e-03, -7.14352131e-02],
       [-1.13027534e-02, -5.95583916e-02],
       [-2.05826703e-02, -7.53733143e-02],
       [-7.84649141e-03, -3.44304391e-03],
       [-7.36882910e-03, -3.49636562e-02],
       [ 3.79707664e-02, -5.54447388e-03],
       [ 5.20077720e-02, -9.01254360e-03],
       [-8.02170672e-03, -5.45450412e-02],
       [ 4.61697578e-02, -1.53403357e-02],
       [ 1.73761847e-03,  3.57277133e-02],
       [ 6.27609156e-03,  4.58605625e-02],
       [ 8.74656159e-03,  2.35152952e-02],
       [-9.44382697e-03, -1.91011690e-02],
       [-1.76625419e-02,  4.96030413e-02],
       [ 2.02084351e-02,  7.90073946e-02],
       [ 3.13136727e-02, -1.04157459e-02],
       [-2.15691347e-02,  6.64258450e-02],
       [ 3.69235687e-02,  3.93553972e-02],
       [-1.32307317e-02,  5.66285439e-02],
       [ 8.23217109e-02,  6.08050786e-02],
       [ 2.65054544e-03,  5.37726656e-02],
       [-1.52295521e-02,  3.89741883e-02],
       [ 4.68515418e-02,  4.43898439e-02],
       [ 5.59531115e-02,  1.09008163e-01],
       [ 8.25772285e-02,  1.06711484e-01],
       [ 6.60385266e-02,  1.35377258e-01],
       [ 6.27409816e-02,  9.04791653e-02],
       [ 7.78048346e-03,  1.05316572e-01],
       [-1.60497297e-02, -3.32345814e-03],
       [ 1.89708807e-02,  9.00519080e-03],
       [ 2.82122996e-02,  1.50633361e-02],
       [ 5.86384349e-02, -1.74109789e-03],
       [ 8.78557912e-04,  2.24695764e-02],
       [ 2.95122527e-02, -3.29792500e-02],
       [-5.61522134e-03,  1.20645342e-03],
       [ 5.12932651e-02, -1.05978601e-01],
       [ 7.59799406e-03,  3.00956611e-02],
       [-7.16431485e-03, -2.94708516e-02],
       [ 6.54536951e-03, -5.99491186e-02],
       [-6.82714023e-03,  7.33189704e-03],
       [-8.32984596e-03,  2.21750196e-02],
       [ 4.62253429e-02,  2.27340870e-02],
       [ 7.63322134e-03,  5.29982857e-02],
       [ 5.18204495e-02, -2.16033328e-02],
       [ 2.56794114e-02,  4.17009555e-02],
       [ 1.93268489e-02,  4.97024842e-02],
       [-1.27889053e-03,  5.17706946e-02],
       [-4.27425094e-03,  6.87993914e-02],
       [ 3.28010283e-02,  1.60306618e-02],
       [-3.09966435e-03,  6.82729110e-02],
       [-1.53662302e-02, -2.81761382e-02],
       [-3.25740688e-02,  6.52920231e-02],
       [ 4.61595841e-02,  8.16487372e-02],
       [ 3.14569324e-02,  6.24714755e-02],
       [ 5.85075207e-02,  3.21632735e-02],
       [ 2.39414722e-02,  1.14934176e-01],
       [ 5.78519516e-02,  6.24931678e-02],
       [ 6.02239072e-02,  6.86990395e-02],
       [ 7.30469972e-02,  2.19630580e-02],
       [-3.97043340e-02,  5.88512011e-02],
       [ 1.40621010e-02,  9.22290534e-02],
       [ 6.00811606e-03, -3.28497514e-02],
       [ 6.88742325e-02, -2.78180670e-02],
       [-1.08063109e-02, -2.92950105e-02],
       [ 4.01460044e-02,  2.46865097e-02],
       [-1.29862530e-02, -3.36189233e-02],
       [-1.51214497e-02, -5.69102392e-02],
       [ 8.14341083e-02,  4.27156836e-02],
       [ 1.98364574e-02, -9.12394971e-02],
       [ 8.60102996e-02, -1.18542854e-02],
       [ 4.69067320e-02,  2.08363086e-02],
       [ 3.64863239e-02, -4.75062206e-02],
       [ 3.57631482e-02, -3.93134877e-02],
       [ 7.04888552e-02,  6.14037290e-02],
       [-8.33350047e-03, -3.08866575e-02],
       [ 9.23917517e-02,  1.04200467e-02],
       [-1.96903646e-02,  4.82926890e-02],
       [ 2.69530360e-02,  6.30611693e-03],
       [-4.53903049e-05, -4.17118659e-03],
       [ 7.87335336e-02,  9.28352326e-02],
       [ 1.42643135e-02,  1.24561407e-01],
       [ 7.58943185e-02,  5.45195341e-02],
       [ 8.38457514e-03,  1.56809371e-02],
       [ 4.89215106e-02,  7.54647404e-02],
       [ 9.40898508e-02,  6.82665706e-02],
       [-9.61983763e-03,  2.06861179e-02],
       [ 6.72078431e-02,  1.10077471e-01],
       [ 1.43209333e-02,  6.45842850e-02],
       [ 2.50832625e-02,  1.03984118e-01],
       [ 8.41919258e-02,  6.32727146e-02],
       [ 8.83981958e-02,  1.35463983e-01],
       [ 3.12040485e-02,  1.16383091e-01],
       [-2.16952078e-02,  1.30053654e-01],
       [ 4.71160449e-02,  6.38990030e-02],
       [ 4.14210968e-02,  3.23611982e-02],
       [ 6.41728267e-02,  2.68354006e-02],
       [ 9.96534619e-03,  7.42135663e-03],
       [ 8.78790095e-02, -2.05139592e-02],
       [ 7.91654512e-02, -4.23848107e-02],
       [-2.44672468e-04,  2.45907903e-02],
       [ 2.09075473e-02, -5.14982603e-02],
       [ 3.66460718e-02, -6.62645325e-02],
       [ 9.43745896e-02,  3.19080502e-02],
       [ 2.35464517e-02, -1.46878045e-02],
       [ 1.87758636e-02,  6.76458105e-02],
       [ 8.04375485e-02, -6.22650683e-02],
       [ 3.52626368e-02,  2.58803889e-02],
       [ 4.70183641e-02,  7.41040781e-02],
       [ 9.15198326e-02,  2.93971952e-02],
       [-2.93856915e-02,  4.63324487e-02],
       [ 7.13265389e-02, -5.26666292e-04],
       [ 4.17804271e-02,  9.14002880e-02],
       [ 3.82125117e-02,  5.62448688e-02],
       [ 5.80961406e-02,  3.55380066e-02],
       [ 2.53398879e-03,  7.02508315e-02],
       [ 4.94786864e-03,  2.18333956e-02],
       [ 5.55114523e-02,  5.97471632e-02],
       [-1.12154083e-02, -1.44163333e-02],
       [-1.20628607e-02, -1.98623948e-02],
       [-2.32590139e-02, -2.07707938e-02],
       [-4.59284224e-02,  4.68125008e-02],
       [ 8.00472312e-03,  7.82243535e-02],
       [ 6.44825771e-02,  6.81240931e-02],
       [ 5.55394329e-02,  3.12596597e-02],
       [ 7.51035661e-02,  1.20893411e-01],
       [ 2.17723064e-02, -5.55637851e-02],
       [ 8.72632265e-02, -6.71036541e-02],
       [ 6.23791479e-04, -7.39636347e-02],
       [ 8.34337473e-02, -6.43872842e-02],
       [ 2.85593662e-02, -3.28937434e-02],
       [-1.49526596e-02, -4.60652336e-02],
       [ 6.69766683e-03, -7.32261539e-02],
       [ 7.38288555e-03, -2.50191726e-02],
       [ 1.28276879e-02,  2.94092670e-02],
       [ 7.48661011e-02, -3.77716050e-02],
       [ 6.10745139e-02,  7.67401699e-03],
       [ 5.59121892e-02, -3.62935439e-02],
       [ 4.02998403e-02,  3.89551967e-02],
       [-1.27675040e-02,  2.06642579e-02],
       [ 5.11508377e-04,  6.45019487e-02],
       [-1.57613587e-02,  6.23549037e-02],
       [ 1.97682548e-02,  5.11244126e-02],
       [ 6.87132925e-02,  9.15709734e-02],
       [ 7.18848631e-02,  1.03713490e-01],
       [ 2.51485053e-02,  7.78158084e-02],
       [ 8.30328763e-02,  1.16043635e-01],
       [ 7.68475309e-02, -1.59764476e-02],
       [-4.49571572e-02,  3.52581352e-04],
       [ 3.05695180e-03, -3.98430647e-03],
       [ 1.64163914e-02, -8.20565317e-03],
       [-7.88191985e-03,  7.04689324e-02],
       [-7.70241069e-03,  6.78050071e-02],
       [ 3.73295993e-02, -1.92502700e-02],
       [ 4.64473814e-02,  1.08976543e-01],
       [ 1.81380678e-02,  4.86654378e-02],
       [ 2.03132331e-02,  3.91229577e-02],
       [ 4.55294251e-02,  7.20103234e-02],
       [ 8.16677362e-02,  3.42114419e-02],
       [-3.95965390e-02,  3.40534896e-02],
       [ 7.26583153e-02, -6.29055947e-02],
       [ 1.08035125e-01, -2.19922774e-02],
       [ 1.65499635e-02, -6.86889589e-02],
       [ 1.01231441e-01, -1.89586971e-02],
       [ 2.28077057e-03, -7.44749978e-02],
       [ 6.83128089e-02, -2.48991456e-02],
       [ 5.50386030e-04, -5.64798824e-02],
       [ 7.95311183e-02,  9.49220546e-03],
       [ 4.78155650e-02,  3.58933508e-02],
       [ 2.83849034e-02,  1.92087963e-02],
       [ 2.12888848e-02,  1.48828719e-02],
       [ 1.18737593e-01,  4.23819572e-02],
       [ 5.52479513e-02, -8.37614667e-03],
       [ 6.96395338e-03,  5.92773706e-02],
       [ 2.81430781e-02, -1.88115742e-02],
       [-2.17052773e-02,  3.20550799e-02],
       [ 8.65070671e-02,  3.89641374e-02],
       [ 9.99879614e-02,  7.08788708e-02],
       [ 3.94373722e-02,  1.27590597e-02],
       [-6.48495229e-03,  2.54143551e-02],
       [-1.34343440e-02,  7.75133893e-02],
       [-3.24671008e-02,  1.86736044e-02],
       [ 4.44753692e-02, -2.98163425e-02],
       [ 2.31755227e-02, -2.20291186e-02],
       [-5.04187904e-02,  9.46947411e-02],
       [-5.82479918e-03,  1.14283942e-01],
       [-5.01748174e-02,  5.48919961e-02],
       [ 6.96373954e-02,  2.51685400e-02],
       [ 6.48843497e-02,  1.41976461e-01],
       [ 4.72340360e-02, -2.20938604e-02],
       [-1.18691120e-02, -1.60390802e-03],
       [ 5.30985706e-02,  5.07367440e-02],
       [ 8.64034817e-02,  3.81912701e-02],
       [ 1.71104930e-02, -1.27508277e-02],
       [ 1.05792299e-01, -5.07552661e-02],
       [ 6.05795495e-02,  2.86730062e-02],
       [ 6.09317087e-02, -5.63896075e-03],
       [ 1.09841995e-01,  3.43544297e-02],
       [ 8.96749124e-02,  2.69470848e-02],
       [ 7.80059695e-02, -2.13827100e-03],
       [ 9.51736867e-02,  1.46749169e-02],
       [ 8.11939314e-02, -3.88864353e-02],
       [ 9.21049118e-02,  5.50829396e-02],
       [ 7.13192299e-02,  2.74570342e-02],
       [ 7.54394978e-02,  3.88410548e-03],
       [ 8.01448673e-02,  6.88754395e-02],
       [ 1.04396194e-01,  4.73102964e-02],
       [ 6.96903560e-03, -4.28488813e-02],
       [ 7.98457786e-02,  6.09764867e-02],
       [ 8.64316672e-02,  4.38417448e-03],
       [ 1.12205818e-01,  2.63371114e-02],
       [ 7.87179992e-02,  2.27696318e-02],
       [ 2.02930570e-02,  5.85128479e-02],
       [ 7.96770081e-02,  5.62645271e-02],
       [ 5.45999296e-02,  8.52342322e-02],
       [ 2.12194473e-02,  3.18914503e-02],
       [ 3.64899784e-02,  9.88864005e-02],
       [ 1.19761471e-02,  4.87660468e-02],
       [ 3.46479565e-02,  2.23140754e-02],
       [ 4.61381348e-03,  1.40922815e-01],
       [ 7.29374588e-02,  4.31863684e-03],
       [ 2.47229729e-03,  9.44239125e-02],
       [ 8.44880268e-02, -2.40532700e-02],
       [-4.94153891e-03,  1.21268064e-01],
       [ 6.29907250e-02,  7.07485899e-02],
       [ 5.23781925e-02,  6.81307837e-02],
       [ 9.44326073e-02,  5.74674904e-02],
       [ 4.59089391e-02, -1.68225784e-02],
       [ 1.08823031e-01,  1.30062494e-02],
       [ 8.24743882e-02,  2.45889556e-02],
       [ 5.53796031e-02, -6.36250013e-03],
       [ 1.02274634e-01, -4.04737890e-03],
       [ 5.67350946e-02,  4.97916564e-02],
       [ 5.88765889e-02,  4.03217636e-02],
       [ 1.25561565e-01,  1.53927533e-02],
       [ 8.99501294e-02,  4.11231145e-02],
       [ 7.23574460e-02,  4.56256159e-02],
       [ 5.96746206e-02, -5.77228051e-03],
       [ 6.71381131e-02,  4.09429818e-02],
       [ 2.42143050e-02,  3.81291062e-02],
       [ 8.21378976e-02,  1.02367457e-02],
       [ 3.21483500e-02,  3.86341587e-02],
       [ 1.08876303e-01,  2.62436923e-02],
       [ 2.95632221e-02,  4.46984470e-02],
       [ 4.79501188e-02,  4.00829688e-02],
       [ 8.53789076e-02,  5.87997995e-02],
       [ 4.69492115e-02,  3.99572738e-02],
       [ 3.58181894e-02,  2.10482813e-02],
       [ 7.49130026e-02,  4.35280688e-02],
       [ 1.78628117e-02,  4.93302420e-02],
       [ 5.79185523e-02,  4.89143236e-03],
       [ 1.03535272e-01,  1.12747908e-01],
       [ 6.32069707e-02,  5.05759474e-03],
       [ 6.78079799e-02,  1.53504759e-01],
       [ 1.34342844e-02,  1.06393270e-01],
       [-5.33862924e-03,  1.06124490e-01],
       [ 1.60039905e-02,  8.90500769e-02],
       [ 1.18233841e-02,  3.12506184e-02],
       [ 1.68423988e-02, -6.63524345e-02],
       [ 3.57349627e-02, -6.31679818e-02],
       [ 6.15477152e-02,  3.32916714e-02],
       [ 7.20388368e-02,  3.85896340e-02],
       [-2.02319194e-02, -4.83401716e-02],
       [-4.16361447e-03, -1.59225371e-02],
       [ 1.60086956e-02,  8.02317983e-04],
       [ 1.07079081e-03,  3.40110362e-02],
       [ 5.67685775e-02, -4.09923904e-02],
       [-2.79769767e-03,  2.67395657e-02],
       [ 7.26344287e-02,  4.64036949e-02],
       [ 9.01237130e-02,  1.83182471e-02],
       [ 9.86131951e-02,  2.58268509e-02],
       [ 3.68106551e-02, -8.15079082e-03],
       [ 5.16414642e-02,  7.23720491e-02],
       [ 5.15810214e-02, -1.53882038e-02],
       [ 5.54797128e-02,  8.09844304e-03],
       [ 1.60453897e-02, -3.30922194e-02],
       [ 7.42578506e-02, -1.61188841e-02],
       [ 1.19542725e-01,  5.80697767e-02],
       [-9.23905242e-03,  3.21903527e-02],
       [ 2.34914310e-02, -2.19019465e-02],
       [ 1.01953804e-01, -1.97600275e-02],
       [ 3.10827922e-02,  1.05664968e-01],
       [ 5.77449091e-02,  5.86258539e-04],
       [ 4.98750694e-02,  2.34581321e-03],
       [-2.32060105e-02,  1.05157986e-01],
       [-3.62437218e-02, -8.56183004e-03]], dtype=float32), array([0.13953742, 0.14432405], dtype=float32)]